{
    "bestBrain": {
        "biases": [
            [
                0.40889254212379456,
                0.13872653245925903,
                -0.18326923251152039,
                0.5981104969978333,
                0.01700673997402191,
                0.41017481684684753,
                0.329900860786438,
                0.1881488561630249
            ],
            [
                -0.8402739763259888,
                -0.6724343299865723
            ]
        ],
        "fitness": 3.0,
        "weights": [
            [
                0.3982752561569214,
                1.0065252780914307,
                -0.20308619737625122,
                -0.45067429542541504,
                0.21135622262954712,
                -0.35323697328567505,
                0.5168977975845337,
                -1.135027289390564,
                0.8350533843040466,
                0.7026349306106567,
                -0.06930727511644363,
                0.3013221025466919,
                -0.5250034928321838,
                -0.28910520672798157,
                -0.7932000160217285,
                1.1470211744308472,
                -0.49295735359191895,
                -0.25423166155815125,
                -0.16484013199806213,
                -0.6468650698661804,
                -0.357538104057312,
                -0.10574953258037567,
                0.9410948753356934,
                -0.40672796964645386,
                -0.11290336400270462,
                0.3291158378124237,
                0.5413603186607361,
                1.2197799682617188,
                0.5374741554260254,
                -0.3884291350841522,
                -0.09609057009220123,
                -0.4913702607154846,
                0.27947333455085754,
                -0.05323223024606705,
                -0.388336181640625,
                -0.7883179783821106,
                0.1255621612071991,
                -0.34409603476524353,
                -0.7212804555892944,
                0.14565664529800415
            ],
            [
                -0.10391879826784134,
                -0.12936042249202728,
                0.7787374258041382,
                -0.06250791996717453,
                -0.34830278158187866,
                -0.19880640506744385,
                0.09996157884597778,
                -0.07845047116279602,
                0.15380088984966278,
                0.4800857901573181,
                0.7978324890136719,
                0.9898300766944885,
                -0.14054235816001892,
                -0.697038471698761,
                -0.9428702592849731,
                -0.14083990454673767
            ]
        ]
    },
    "fitnessMax": [
        4.0,
        2.0,
        2.0,
        3.0,
        2.0,
        4.0,
        2.0,
        2.0,
        3.0,
        2.0,
        3.0,
        3.0
    ],
    "fitnessMin": [
        0.0,
        0.0,
        0.0,
        0.0,
        0.0,
        0.0,
        0.0,
        0.0,
        0.0,
        0.0,
        0.0,
        0.0
    ],
    "foodType": "generic",
    "generation": 12,
    "maxHealth": 100.0,
    "maxHunger": 100.0,
    "maxSpeed": 150.0,
    "name": "Kobolt",
    "rotationSpeed": 90.0,
    "topology": [
        5,
        8,
        2
    ]
}